digraph Tree {
node [shape=box, style="rounded", color="black", fontname=helvetica] ;
edge [fontname=helvetica] ;
0 [label="Actual Change in Price vs last Year <= 50.7\nmse = 0.2\nsamples = 9546\nvalue = 0.6"] ;
1 [label="Payment Method_Annual <= 0.5\nmse = 0.2\nsamples = 6851\nvalue = 0.7"] ;
0 -> 1 [labeldistance=2.5, labelangle=45, headlabel="True"] ;
2 [label="AGE <= 33.5\nmse = 0.2\nsamples = 5005\nvalue = 0.7"] ;
1 -> 2 ;
3 [label="mse = 0.2\nsamples = 1209\nvalue = 0.6"] ;
2 -> 3 ;
4 [label="mse = 0.2\nsamples = 3796\nvalue = 0.8"] ;
2 -> 4 ;
5 [label="Price <= 279.4\nmse = 0.2\nsamples = 1846\nvalue = 0.6"] ;
1 -> 5 ;
6 [label="mse = 0.2\nsamples = 1022\nvalue = 0.6"] ;
5 -> 6 ;
7 [label="mse = 0.2\nsamples = 824\nvalue = 0.5"] ;
5 -> 7 ;
8 [label="Payment Method_Monthly <= 0.5\nmse = 0.2\nsamples = 2695\nvalue = 0.4"] ;
0 -> 8 [labeldistance=2.5, labelangle=-45, headlabel="False"] ;
9 [label="Price <= 384.8\nmse = 0.2\nsamples = 738\nvalue = 0.3"] ;
8 -> 9 ;
10 [label="mse = 0.2\nsamples = 383\nvalue = 0.3"] ;
9 -> 10 ;
11 [label="mse = 0.2\nsamples = 355\nvalue = 0.2"] ;
9 -> 11 ;
12 [label="Price <= 583.5\nmse = 0.2\nsamples = 1957\nvalue = 0.5"] ;
8 -> 12 ;
13 [label="mse = 0.2\nsamples = 1307\nvalue = 0.6"] ;
12 -> 13 ;
14 [label="mse = 0.2\nsamples = 650\nvalue = 0.4"] ;
12 -> 14 ;
}